digraph Tree {
node [shape=box, style="filled, rounded", color="black", fontname="helvetica"] ;
edge [fontname="helvetica"] ;
0 [label="maxPrice <= 0.05\ngini = 0.03\nsamples = 408223\nvalue = [636996, 8820]", fillcolor="#e5833c"] ;
1 [label="interactionTime <= 0.0\ngini = 0.02\nsamples = 164626\nvalue = [258011, 3138]", fillcolor="#e5833b"] ;
0 -> 1 [labeldistance=2.5, labelangle=45, headlabel="True"] ;
2 [label="NumCart <= 0.06\ngini = 0.02\nsamples = 161277\nvalue = [253091, 2760]", fillcolor="#e5823b"] ;
1 -> 2 ;
3 [label="NumView <= 0.06\ngini = 0.02\nsamples = 155218\nvalue = [243414, 2754]", fillcolor="#e5823b"] ;
2 -> 3 ;
4 [label="gini = 0.0\nsamples = 1704\nvalue = [0, 2746]", fillcolor="#399de5"] ;
3 -> 4 ;
5 [label="NumOfEventsInJourney <= 0.13\ngini = 0.0\nsamples = 153514\nvalue = [243414, 8]", fillcolor="#e58139"] ;
3 -> 5 ;
6 [label="gini = 0.0\nsamples = 153036\nvalue = [242678, 0]", fillcolor="#e58139"] ;
5 -> 6 ;
7 [label="InsessionView <= 0.02\ngini = 0.02\nsamples = 478\nvalue = [736, 8]", fillcolor="#e5823b"] ;
5 -> 7 ;
8 [label="(...)", fillcolor="#C0C0C0"] ;
7 -> 8 ;
13 [label="(...)", fillcolor="#C0C0C0"] ;
7 -> 13 ;
14 [label="NumView <= 0.06\ngini = 0.0\nsamples = 6059\nvalue = [9677, 6]", fillcolor="#e58139"] ;
2 -> 14 ;
15 [label="maxPrice <= 0.01\ngini = 0.0\nsamples = 5929\nvalue = [9473, 6]", fillcolor="#e58139"] ;
14 -> 15 ;
16 [label="NumOfEventsInJourney <= 0.13\ngini = 0.01\nsamples = 598\nvalue = [952, 5]", fillcolor="#e5823a"] ;
15 -> 16 ;
17 [label="(...)", fillcolor="#C0C0C0"] ;
16 -> 17 ;
18 [label="(...)", fillcolor="#C0C0C0"] ;
16 -> 18 ;
23 [label="NumOfEventsInJourney <= 0.13\ngini = 0.0\nsamples = 5331\nvalue = [8521, 1]", fillcolor="#e58139"] ;
15 -> 23 ;
24 [label="(...)", fillcolor="#C0C0C0"] ;
23 -> 24 ;
25 [label="(...)", fillcolor="#C0C0C0"] ;
23 -> 25 ;
32 [label="gini = 0.0\nsamples = 130\nvalue = [204, 0]", fillcolor="#e58139"] ;
14 -> 32 ;
33 [label="InsessionView <= 0.01\ngini = 0.13\nsamples = 3349\nvalue = [4920, 378]", fillcolor="#e78b48"] ;
1 -> 33 ;
34 [label="NumCart <= 0.17\ngini = 0.5\nsamples = 114\nvalue = [96, 84]", fillcolor="#fcefe6"] ;
33 -> 34 ;
35 [label="gini = 0.0\nsamples = 52\nvalue = [0, 83]", fillcolor="#399de5"] ;
34 -> 35 ;
36 [label="NumOfEventsInJourney <= 0.21\ngini = 0.02\nsamples = 62\nvalue = [96, 1]", fillcolor="#e5823b"] ;
34 -> 36 ;
37 [label="gini = 0.0\nsamples = 53\nvalue = [85, 0]", fillcolor="#e58139"] ;
36 -> 37 ;
38 [label="interactionTime <= 0.01\ngini = 0.15\nsamples = 9\nvalue = [11, 1]", fillcolor="#e78c4b"] ;
36 -> 38 ;
39 [label="(...)", fillcolor="#C0C0C0"] ;
38 -> 39 ;
40 [label="(...)", fillcolor="#C0C0C0"] ;
38 -> 40 ;
43 [label="interactionTime <= 0.01\ngini = 0.11\nsamples = 3235\nvalue = [4824, 294]", fillcolor="#e78945"] ;
33 -> 43 ;
44 [label="InsessionView <= 0.02\ngini = 0.12\nsamples = 1780\nvalue = [2650, 187]", fillcolor="#e78a47"] ;
43 -> 44 ;
45 [label="maxPrice <= 0.01\ngini = 0.25\nsamples = 709\nvalue = [962, 161]", fillcolor="#e9965a"] ;
44 -> 45 ;
46 [label="(...)", fillcolor="#C0C0C0"] ;
45 -> 46 ;
69 [label="(...)", fillcolor="#C0C0C0"] ;
45 -> 69 ;
88 [label="maxPrice <= 0.02\ngini = 0.03\nsamples = 1071\nvalue = [1688, 26]", fillcolor="#e5833c"] ;
44 -> 88 ;
89 [label="(...)", fillcolor="#C0C0C0"] ;
88 -> 89 ;
100 [label="(...)", fillcolor="#C0C0C0"] ;
88 -> 100 ;
131 [label="InsessionView <= 0.02\ngini = 0.09\nsamples = 1455\nvalue = [2174, 107]", fillcolor="#e68743"] ;
43 -> 131 ;
132 [label="NumOfEventsInJourney <= 0.21\ngini = 0.1\nsamples = 1066\nvalue = [1577, 90]", fillcolor="#e68844"] ;
131 -> 132 ;
133 [label="(...)", fillcolor="#C0C0C0"] ;
132 -> 133 ;
138 [label="(...)", fillcolor="#C0C0C0"] ;
132 -> 138 ;
157 [label="NumView <= 0.17\ngini = 0.05\nsamples = 389\nvalue = [597, 17]", fillcolor="#e6853f"] ;
131 -> 157 ;
158 [label="(...)", fillcolor="#C0C0C0"] ;
157 -> 158 ;
163 [label="(...)", fillcolor="#C0C0C0"] ;
157 -> 163 ;
184 [label="interactionTime <= 0.0\ngini = 0.03\nsamples = 243597\nvalue = [378985, 5682]", fillcolor="#e5833c"] ;
0 -> 184 [labeldistance=2.5, labelangle=-45, headlabel="False"] ;
185 [label="NumView <= 0.06\ngini = 0.03\nsamples = 235848\nvalue = [367722, 4803]", fillcolor="#e5833c"] ;
184 -> 185 ;
186 [label="interactionTime <= 0.0\ngini = 0.36\nsamples = 12817\nvalue = [15340, 4797]", fillcolor="#eda877"] ;
185 -> 186 ;
187 [label="maxPrice <= 0.05\ngini = 0.36\nsamples = 12762\nvalue = [15259, 4790]", fillcolor="#eda977"] ;
186 -> 187 ;
188 [label="maxPrice <= 0.05\ngini = 0.45\nsamples = 19\nvalue = [10, 19]", fillcolor="#a1d1f3"] ;
187 -> 188 ;
189 [label="(...)", fillcolor="#C0C0C0"] ;
188 -> 189 ;
192 [label="(...)", fillcolor="#C0C0C0"] ;
188 -> 192 ;
197 [label="maxPrice <= 0.64\ngini = 0.36\nsamples = 12743\nvalue = [15249, 4771]", fillcolor="#eda877"] ;
187 -> 197 ;
198 [label="(...)", fillcolor="#C0C0C0"] ;
197 -> 198 ;
233 [label="(...)", fillcolor="#C0C0C0"] ;
197 -> 233 ;
244 [label="interactionTime <= 0.0\ngini = 0.15\nsamples = 55\nvalue = [81, 7]", fillcolor="#e78c4a"] ;
186 -> 244 ;
245 [label="gini = 0.0\nsamples = 36\nvalue = [54, 0]", fillcolor="#e58139"] ;
244 -> 245 ;
246 [label="interactionTime <= 0.0\ngini = 0.33\nsamples = 19\nvalue = [27, 7]", fillcolor="#eca26c"] ;
244 -> 246 ;
247 [label="(...)", fillcolor="#C0C0C0"] ;
246 -> 247 ;
248 [label="(...)", fillcolor="#C0C0C0"] ;
246 -> 248 ;
257 [label="NumOfEventsInJourney <= 0.13\ngini = 0.0\nsamples = 223031\nvalue = [352382, 6]", fillcolor="#e58139"] ;
185 -> 257 ;
258 [label="gini = 0.0\nsamples = 222656\nvalue = [351762, 0]", fillcolor="#e58139"] ;
257 -> 258 ;
259 [label="InsessionView <= 0.02\ngini = 0.02\nsamples = 375\nvalue = [620, 6]", fillcolor="#e5823b"] ;
257 -> 259 ;
260 [label="maxPrice <= 0.05\ngini = 0.07\nsamples = 105\nvalue = [164, 6]", fillcolor="#e68640"] ;
259 -> 260 ;
261 [label="(...)", fillcolor="#C0C0C0"] ;
260 -> 261 ;
264 [label="(...)", fillcolor="#C0C0C0"] ;
260 -> 264 ;
269 [label="gini = 0.0\nsamples = 270\nvalue = [456, 0]", fillcolor="#e58139"] ;
259 -> 269 ;
270 [label="NumCart <= 0.06\ngini = 0.13\nsamples = 7749\nvalue = [11263, 879]", fillcolor="#e78b48"] ;
184 -> 270 ;
271 [label="NumOfEventsInJourney <= 0.21\ngini = 0.12\nsamples = 6052\nvalue = [8858, 589]", fillcolor="#e78946"] ;
270 -> 271 ;
272 [label="InsessionView <= 0.01\ngini = 0.11\nsamples = 5587\nvalue = [8165, 522]", fillcolor="#e78946"] ;
271 -> 272 ;
273 [label="gini = 0.0\nsamples = 28\nvalue = [0, 50]", fillcolor="#399de5"] ;
272 -> 273 ;
274 [label="InsessionView <= 0.02\ngini = 0.1\nsamples = 5559\nvalue = [8165, 472]", fillcolor="#e78844"] ;
272 -> 274 ;
275 [label="(...)", fillcolor="#C0C0C0"] ;
274 -> 275 ;
278 [label="(...)", fillcolor="#C0C0C0"] ;
274 -> 278 ;
285 [label="InsessionView <= 0.02\ngini = 0.16\nsamples = 465\nvalue = [693, 67]", fillcolor="#e88d4c"] ;
271 -> 285 ;
286 [label="maxPrice <= 0.84\ngini = 0.21\nsamples = 217\nvalue = [317, 42]", fillcolor="#e89253"] ;
285 -> 286 ;
287 [label="(...)", fillcolor="#C0C0C0"] ;
286 -> 287 ;
302 [label="(...)", fillcolor="#C0C0C0"] ;
286 -> 302 ;
303 [label="interactionTime <= 0.6\ngini = 0.12\nsamples = 248\nvalue = [376, 25]", fillcolor="#e78946"] ;
285 -> 303 ;
304 [label="(...)", fillcolor="#C0C0C0"] ;
303 -> 304 ;
317 [label="(...)", fillcolor="#C0C0C0"] ;
303 -> 317 ;
324 [label="NumView <= 0.06\ngini = 0.19\nsamples = 1697\nvalue = [2405, 290]", fillcolor="#e89051"] ;
270 -> 324 ;
325 [label="NumCart <= 0.17\ngini = 0.47\nsamples = 334\nvalue = [320, 203]", fillcolor="#f5d1b7"] ;
324 -> 325 ;
326 [label="gini = 0.0\nsamples = 122\nvalue = [0, 178]", fillcolor="#399de5"] ;
325 -> 326 ;
327 [label="InsessionView <= 0.02\ngini = 0.13\nsamples = 212\nvalue = [320, 25]", fillcolor="#e78b48"] ;
325 -> 327 ;
328 [label="(...)", fillcolor="#C0C0C0"] ;
327 -> 328 ;
341 [label="(...)", fillcolor="#C0C0C0"] ;
327 -> 341 ;
342 [label="NumOfEventsInJourney <= 0.38\ngini = 0.08\nsamples = 1363\nvalue = [2085, 87]", fillcolor="#e68641"] ;
324 -> 342 ;
343 [label="NumOfEventsInJourney <= 0.21\ngini = 0.06\nsamples = 1342\nvalue = [2071, 63]", fillcolor="#e6853f"] ;
342 -> 343 ;
344 [label="(...)", fillcolor="#C0C0C0"] ;
343 -> 344 ;
345 [label="(...)", fillcolor="#C0C0C0"] ;
343 -> 345 ;
400 [label="interactionTime <= 0.33\ngini = 0.47\nsamples = 21\nvalue = [14, 24]", fillcolor="#acd6f4"] ;
342 -> 400 ;
401 [label="(...)", fillcolor="#C0C0C0"] ;
400 -> 401 ;
412 [label="(...)", fillcolor="#C0C0C0"] ;
400 -> 412 ;
}